<ranker>
	<info>
		<type>LAMBDAMART</type>
		<trees>1000</trees>
		<leaves>10</leaves>
		<shrinkage>0.10000000000000001</shrinkage>
		<leafsupport>1</leafsupport>
		<discretization>0</discretization>
		<estop>100</estop>
	</info>
	<ensemble>
		<tree id="1" weight="0.100000001">
			<split>
				<feature>134</feature>
				<threshold>0</threshold>
				<split pos="left">
					<feature>108</feature>
					<threshold>11.8834181</threshold>
					<split pos="left">
						<feature>125</feature>
						<threshold>-4.66343594</threshold>
						<split pos="left">
							<feature>50</feature>
							<threshold>0.0260160007</threshold>
							<split pos="left">
								<output>-0.60377845231470884</output>
							</split>
							<split pos="right">
								<output>-0.19829477327645864</output>
							</split>
						</split>
						<split pos="right">
							<output>0.05690922815636127</output>
						</split>
					</split>
					<split pos="right">
						<feature>108</feature>
						<threshold>19.2810459</threshold>
						<split pos="left">
							<feature>107</feature>
							<threshold>13.3186846</threshold>
							<split pos="left">
								<feature>130</feature>
								<threshold>64950</threshold>
								<split pos="left">
									<feature>110</feature>
									<threshold>-2.81502891</threshold>
									<split pos="left">
										<output>1.6857371078130921</output>
									</split>
									<split pos="right">
										<feature>14</feature>
										<threshold>4</threshold>
										<split pos="left">
											<output>0.26335558779529361</output>
										</split>
										<split pos="right">
											<output>-0.0097231675473248257</output>
										</split>
									</split>
								</split>
								<split pos="right">
									<output>0.79824104996782574</output>
								</split>
							</split>
							<split pos="right">
								<output>0.48282258550316237</output>
							</split>
						</split>
						<split pos="right">
							<output>0.37045795985362567</output>
						</split>
					</split>
				</split>
				<split pos="right">
					<output>1.1686490757834085</output>
				</split>
			</split>
		</tree>
		<tree id="2" weight="0.100000001">
			<split>
				<feature>134</feature>
				<threshold>0</threshold>
				<split pos="left">
					<feature>108</feature>
					<threshold>12.1093168</threshold>
					<split pos="left">
						<output>-0.90795521390432821</output>
					</split>
					<split pos="right">
						<feature>18</feature>
						<threshold>23.4956341</threshold>
						<split pos="left">
							<output>-0.26695050811101539</output>
						</split>
						<split pos="right">
							<output>0.30781585156621144</output>
						</split>
					</split>
				</split>
				<split pos="right">
					<feature>135</feature>
					<threshold>339</threshold>
					<split pos="left">
						<feature>136</feature>
						<threshold>11.4995356</threshold>
						<split pos="left">
							<output>0.80976308552851928</output>
						</split>
						<split pos="right">
							<feature>134</feature>
							<threshold>6</threshold>
							<split pos="left">
								<output>0.90566363859267984</output>
							</split>
							<split pos="right">
								<feature>19</feature>
								<threshold>6.96303082</threshold>
								<split pos="left">
									<output>1.2171321088111728</output>
								</split>
								<split pos="right">
									<feature>127</feature>
									<threshold>22</threshold>
									<split pos="left">
										<output>1.2848244680519205</output>
									</split>
									<split pos="right">
										<output>1.1588176702240018</output>
									</split>
								</split>
							</split>
						</split>
					</split>
					<split pos="right">
						<feature>134</feature>
						<threshold>223</threshold>
						<split pos="left">
							<output>1.0801587860234894</output>
						</split>
						<split pos="right">
							<output>1.6267011837365084</output>
						</split>
					</split>
				</split>
			</split>
		</tree>
		<tree id="3" weight="0.100000001">
			<split>
				<feature>134</feature>
				<threshold>8</threshold>
				<split pos="left">
					<feature>134</feature>
					<threshold>0</threshold>
					<split pos="left">
						<feature>108</feature>
						<threshold>14.8166475</threshold>
						<split pos="left">
							<output>-0.75332179463841564</output>
						</split>
						<split pos="right">
							<output>-0.077059132938262179</output>
						</split>
					</split>
					<split pos="right">
						<output>0.79392269494864598</output>
					</split>
				</split>
				<split pos="right">
					<feature>135</feature>
					<threshold>339</threshold>
					<split pos="left">
						<feature>136</feature>
						<threshold>11.4995356</threshold>
						<split pos="left">
							<output>0.72511371109078127</output>
						</split>
						<split pos="right">
							<feature>127</feature>
							<threshold>22</threshold>
							<split pos="left">
								<output>1.1546958658888427</output>
							</split>
							<split pos="right">
								<output>1.0485488153592213</output>
							</split>
						</split>
					</split>
					<split pos="right">
						<feature>134</feature>
						<threshold>223</threshold>
						<split pos="left">
							<output>1.1241394513138605</output>
						</split>
						<split pos="right">
							<feature>127</feature>
							<threshold>22</threshold>
							<split pos="left">
								<feature>133</feature>
								<threshold>8</threshold>
								<split pos="left">
									<output>1.539920789273322</output>
								</split>
								<split pos="right">
									<output>1.3823576017321111</output>
								</split>
							</split>
							<split pos="right">
								<output>1.3193241008837349</output>
							</split>
						</split>
					</split>
				</split>
			</split>
		</tree>
		<tree id="4" weight="0.100000001">
			<split>
				<feature>134</feature>
				<threshold>8</threshold>
				<split pos="left">
					<feature>134</feature>
					<threshold>0</threshold>
					<split pos="left">
						<feature>108</feature>
						<threshold>14.8164606</threshold>
						<split pos="left">
							<output>-0.74410645209603343</output>
						</split>
						<split pos="right">
							<feature>19</feature>
							<threshold>26.2790565</threshold>
							<split pos="left">
								<output>-0.16244050560321671</output>
							</split>
							<split pos="right">
								<output>0.32306702727415276</output>
							</split>
						</split>
					</split>
					<split pos="right">
						<output>0.67776963546275248</output>
					</split>
				</split>
				<split pos="right">
					<feature>135</feature>
					<threshold>339</threshold>
					<split pos="left">
						<feature>136</feature>
						<threshold>11.4995356</threshold>
						<split pos="left">
							<output>0.59998687018430985</output>
						</split>
						<split pos="right">
							<feature>127</feature>
							<threshold>22</threshold>
							<split pos="left">
								<output>1.0142512805048818</output>
							</split>
							<split pos="right">
								<output>0.9234230410658405</output>
							</split>
						</split>
					</split>
					<split pos="right">
						<feature>134</feature>
						<threshold>223</threshold>
						<split pos="left">
							<output>0.99191956648284785</output>
						</split>
						<split pos="right">
							<feature>127</feature>
							<threshold>22</threshold>
							<split pos="left">
								<output>1.3670268846569182</output>
							</split>
							<split pos="right">
								<output>1.2063348019987479</output>
							</split>
						</split>
					</split>
				</split>
			</split>
		</tree>
		<tree id="5" weight="0.100000001">
			<split>
				<feature>134</feature>
				<threshold>8</threshold>
				<split pos="left">
					<feature>134</feature>
					<threshold>0</threshold>
					<split pos="left">
						<feature>108</feature>
						<threshold>14.8164606</threshold>
						<split pos="left">
							<output>-0.65603762809649957</output>
						</split>
						<split pos="right">
							<feature>18</feature>
							<threshold>28.2573185</threshold>
							<split pos="left">
								<output>-0.094212446781276257</output>
							</split>
							<split pos="right">
								<output>0.37406473346190589</output>
							</split>
						</split>
					</split>
					<split pos="right">
						<output>0.57986453198625953</output>
					</split>
				</split>
				<split pos="right">
					<feature>135</feature>
					<threshold>339</threshold>
					<split pos="left">
						<feature>136</feature>
						<threshold>11.4995356</threshold>
						<split pos="left">
							<output>0.51097037846985793</output>
						</split>
						<split pos="right">
							<feature>127</feature>
							<threshold>22</threshold>
							<split pos="left">
								<output>0.90355327834424093</output>
							</split>
							<split pos="right">
								<output>0.81918648616286849</output>
							</split>
						</split>
					</split>
					<split pos="right">
						<feature>127</feature>
						<threshold>20</threshold>
						<split pos="left">
							<feature>134</feature>
							<threshold>465</threshold>
							<split pos="left">
								<output>1.010193241884431</output>
							</split>
							<split pos="right">
								<output>1.2836009113904254</output>
							</split>
						</split>
						<split pos="right">
							<output>1.0376104042840066</output>
						</split>
					</split>
				</split>
			</split>
		</tree>
		<tree id="6" weight="0.100000001">
			<split>
				<feature>134</feature>
				<threshold>8</threshold>
				<split pos="left">
					<feature>134</feature>
					<threshold>0</threshold>
					<split pos="left">
						<feature>108</feature>
						<threshold>16.5616493</threshold>
						<split pos="left">
							<output>-0.52218604940422253</output>
						</split>
						<split pos="right">
							<feature>19</feature>
							<threshold>26.3281708</threshold>
							<split pos="left">
								<output>-0.089268498113533989</output>
							</split>
							<split pos="right">
								<output>0.28815480084942524</output>
							</split>
						</split>
					</split>
					<split pos="right">
						<output>0.49851636052848952</output>
					</split>
				</split>
				<split pos="right">
					<feature>135</feature>
					<threshold>339</threshold>
					<split pos="left">
						<feature>136</feature>
						<threshold>11.4995356</threshold>
						<split pos="left">
							<output>0.43499596034762511</output>
						</split>
						<split pos="right">
							<feature>127</feature>
							<threshold>22</threshold>
							<split pos="left">
								<output>0.8093786180568604</output>
							</split>
							<split pos="right">
								<output>0.72787561777183407</output>
							</split>
						</split>
					</split>
					<split pos="right">
						<feature>127</feature>
						<threshold>20</threshold>
						<split pos="left">
							<feature>134</feature>
							<threshold>465</threshold>
							<split pos="left">
								<output>0.91905194462004491</output>
							</split>
							<split pos="right">
								<output>1.1939541710572044</output>
							</split>
						</split>
						<split pos="right">
							<output>0.94440869386472437</output>
						</split>
					</split>
				</split>
			</split>
		</tree>
		<tree id="7" weight="0.100000001">
			<split>
				<feature>134</feature>
				<threshold>8</threshold>
				<split pos="left">
					<feature>134</feature>
					<threshold>0</threshold>
					<split pos="left">
						<feature>108</feature>
						<threshold>16.5570564</threshold>
						<split pos="left">
							<output>-0.50007420054221963</output>
						</split>
						<split pos="right">
							<feature>118</feature>
							<threshold>-25.4802914</threshold>
							<split pos="left">
								<output>0.29636178435578558</output>
							</split>
							<split pos="right">
								<output>-0.026473333818412076</output>
							</split>
						</split>
					</split>
					<split pos="right">
						<output>0.43177221380367609</output>
					</split>
				</split>
				<split pos="right">
					<feature>135</feature>
					<threshold>339</threshold>
					<split pos="left">
						<feature>136</feature>
						<threshold>14.7333336</threshold>
						<split pos="left">
							<output>0.39402579495216328</output>
						</split>
						<split pos="right">
							<feature>127</feature>
							<threshold>22</threshold>
							<split pos="left">
								<output>0.75487739782659125</output>
							</split>
							<split pos="right">
								<output>0.66194769222322725</output>
							</split>
						</split>
					</split>
					<split pos="right">
						<feature>54</feature>
						<threshold>0.222222</threshold>
						<split pos="left">
							<feature>134</feature>
							<threshold>223</threshold>
							<split pos="left">
								<output>0.58525456481844884</output>
							</split>
							<split pos="right">
								<output>1.0121527642257726</output>
							</split>
						</split>
						<split pos="right">
							<output>1.1957222291356868</output>
						</split>
					</split>
				</split>
			</split>
		</tree>
		<tree id="8" weight="0.100000001">
			<split>
				<feature>134</feature>
				<threshold>75</threshold>
				<split pos="left">
					<feature>134</feature>
					<threshold>0</threshold>
					<split pos="left">
						<feature>108</feature>
						<threshold>16.5570564</threshold>
						<split pos="left">
							<output>-0.44571248663882035</output>
						</split>
						<split pos="right">
							<feature>118</feature>
							<threshold>-25.5011501</threshold>
							<split pos="left">
								<output>0.25667255572596959</output>
							</split>
							<split pos="right">
								<feature>135</feature>
								<threshold>10858</threshold>
								<split pos="left">
									<feature>14</feature>
									<threshold>4</threshold>
									<split pos="left">
										<output>0.41632528829201343</output>
									</split>
									<split pos="right">
										<output>-0.082809086206319688</output>
									</split>
								</split>
								<split pos="right">
									<output>1.5473025286514839</output>
								</split>
							</split>
						</split>
					</split>
					<split pos="right">
						<feature>117</feature>
						<threshold>-19.6761913</threshold>
						<split pos="left">
							<output>0.70676338331699107</output>
						</split>
						<split pos="right">
							<output>0.25103728623366339</output>
						</split>
					</split>
				</split>
				<split pos="right">
					<feature>135</feature>
					<threshold>255</threshold>
					<split pos="left">
						<output>0.58569787016709773</output>
					</split>
					<split pos="right">
						<feature>127</feature>
						<threshold>22</threshold>
						<split pos="left">
							<output>1.0304027777977831</output>
						</split>
						<split pos="right">
							<output>0.8415878931436519</output>
						</split>
					</split>
				</split>
			</split>
		</tree>
		<tree id="9" weight="0.100000001">
			<split>
				<feature>134</feature>
				<threshold>75</threshold>
				<split pos="left">
					<feature>134</feature>
					<threshold>0</threshold>
					<split pos="left">
						<feature>108</feature>
						<threshold>18.911911</threshold>
						<split pos="left">
							<feature>60</feature>
							<threshold>0.0118969996</threshold>
							<split pos="left">
								<output>-0.64139709263685118</output>
							</split>
							<split pos="right">
								<feature>20</feature>
								<threshold>18.3255539</threshold>
								<split pos="left">
									<output>-0.30873094941702073</output>
								</split>
								<split pos="right">
									<output>0.1562038876637809</output>
								</split>
							</split>
						</split>
						<split pos="right">
							<feature>14</feature>
							<threshold>4</threshold>
							<split pos="left">
								<output>0.60236293017026998</output>
							</split>
							<split pos="right">
								<output>0.0023093945887640512</output>
							</split>
						</split>
					</split>
					<split pos="right">
						<feature>117</feature>
						<threshold>-19.6761913</threshold>
						<split pos="left">
							<output>0.64175236127076329</output>
						</split>
						<split pos="right">
							<output>0.21576832542757965</output>
						</split>
					</split>
				</split>
				<split pos="right">
					<feature>135</feature>
					<threshold>255</threshold>
					<split pos="left">
						<output>0.5201659961445857</output>
					</split>
					<split pos="right">
						<feature>127</feature>
						<threshold>20</threshold>
						<split pos="left">
							<output>0.97311116906793738</output>
						</split>
						<split pos="right">
							<output>0.80182861565780972</output>
						</split>
					</split>
				</split>
			</split>
		</tree>
		<tree id="10" weight="0.100000001">
			<split>
				<feature>134</feature>
				<threshold>75</threshold>
				<split pos="left">
					<feature>134</feature>
					<threshold>0</threshold>
					<split pos="left">
						<feature>108</feature>
						<threshold>18.9028187</threshold>
						<split pos="left">
							<feature>123</feature>
							<threshold>-10.592289</threshold>
							<split pos="left">
								<output>-0.48626333420671447</output>
							</split>
							<split pos="right">
								<output>-0.19709691878671814</output>
							</split>
						</split>
						<split pos="right">
							<feature>135</feature>
							<threshold>59510</threshold>
							<split pos="left">
								<feature>14</feature>
								<threshold>4</threshold>
								<split pos="left">
									<output>0.54068669393832547</output>
								</split>
								<split pos="right">
									<output>0.014979408459667543</output>
								</split>
							</split>
							<split pos="right">
								<output>1.6245210537871304</output>
							</split>
						</split>
					</split>
					<split pos="right">
						<feature>19</feature>
						<threshold>14.2566996</threshold>
						<split pos="left">
							<output>-0.092845280838119895</output>
						</split>
						<split pos="right">
							<output>0.4736276155942632</output>
						</split>
					</split>
				</split>
				<split pos="right">
					<feature>135</feature>
					<threshold>255</threshold>
					<split pos="left">
						<output>0.45021683899366283</output>
					</split>
					<split pos="right">
						<feature>54</feature>
						<threshold>0.222222</threshold>
						<split pos="left">
							<output>0.79830340278094647</output>
						</split>
						<split pos="right">
							<output>1.0413889558411573</output>
						</split>
					</split>
				</split>
			</split>
		</tree>
		<tree id="11" weight="0.100000001">
			<split>
				<feature>134</feature>
				<threshold>75</threshold>
				<split pos="left">
					<feature>134</feature>
					<threshold>2</threshold>
					<split pos="left">
						<feature>108</feature>
						<threshold>19.8206387</threshold>
						<split pos="left">
							<feature>65</feature>
							<threshold>0.00875400007</threshold>
							<split pos="left">
								<output>-0.52089224137743206</output>
							</split>
							<split pos="right">
								<feature>20</feature>
								<threshold>18.2718163</threshold>
								<split pos="left">
									<output>-0.20122970979457439</output>
								</split>
								<split pos="right">
									<output>0.15933434610916439</output>
								</split>
							</split>
						</split>
						<split pos="right">
							<feature>135</feature>
							<threshold>23122</threshold>
							<split pos="left">
								<feature>14</feature>
								<threshold>4</threshold>
								<split pos="left">
									<output>0.51463393720440032</output>
								</split>
								<split pos="right">
									<output>0.052977291653945199</output>
								</split>
							</split>
							<split pos="right">
								<output>1.5243050477563367</output>
							</split>
						</split>
					</split>
					<split pos="right">
						<output>0.34997737178903349</output>
					</split>
				</split>
				<split pos="right">
					<feature>135</feature>
					<threshold>255</threshold>
					<split pos="left">
						<output>0.39987528859804478</output>
					</split>
					<split pos="right">
						<feature>127</feature>
						<threshold>20</threshold>
						<split pos="left">
							<output>0.87989852437931004</output>
						</split>
						<split pos="right">
							<output>0.68211200991143206</output>
						</split>
					</split>
				</split>
			</split>
		</tree>
		<tree id="12" weight="0.100000001">
			<split>
				<feature>134</feature>
				<threshold>40</threshold>
				<split pos="left">
					<feature>134</feature>
					<threshold>0</threshold>
					<split pos="left">
						<feature>3</feature>
						<threshold>2</threshold>
						<split pos="left">
							<feature>115</feature>
							<threshold>-9.23514175</threshold>
							<split pos="left">
								<feature>50</feature>
								<threshold>0.0152540002</threshold>
								<split pos="left">
									<output>-0.73964801840192385</output>
								</split>
								<split pos="right">
									<output>-0.23207138865483737</output>
								</split>
							</split>
							<split pos="right">
								<feature>127</feature>
								<threshold>28</threshold>
								<split pos="left">
									<output>0.11346872901249273</output>
								</split>
								<split pos="right">
									<output>-0.19055749900831553</output>
								</split>
							</split>
						</split>
						<split pos="right">
							<output>0.22711908472647396</output>
						</split>
					</split>
					<split pos="right">
						<feature>19</feature>
						<threshold>16.4413223</threshold>
						<split pos="left">
							<output>-0.03705960372692553</output>
						</split>
						<split pos="right">
							<output>0.43957974432448232</output>
						</split>
					</split>
				</split>
				<split pos="right">
					<feature>135</feature>
					<threshold>255</threshold>
					<split pos="left">
						<feature>135</feature>
						<threshold>30</threshold>
						<split pos="left">
							<output>0.17214494908232389</output>
						</split>
						<split pos="right">
							<output>0.57636219056539018</output>
						</split>
					</split>
					<split pos="right">
						<output>0.74563666825832697</output>
					</split>
				</split>
			</split>
		</tree>
		<tree id="13" weight="0.100000001">
			<split>
				<feature>134</feature>
				<threshold>75</threshold>
				<split pos="left">
					<feature>134</feature>
					<threshold>2</threshold>
					<split pos="left">
						<feature>3</feature>
						<threshold>2</threshold>
						<split pos="left">
							<feature>115</feature>
							<threshold>-9.23514175</threshold>
							<split pos="left">
								<output>-0.3633003525589894</output>
							</split>
							<split pos="right">
								<feature>127</feature>
								<threshold>28</threshold>
								<split pos="left">
									<output>0.13426154569575466</output>
								</split>
								<split pos="right">
									<output>-0.19112400031446902</output>
								</split>
							</split>
						</split>
						<split pos="right">
							<feature>14</feature>
							<threshold>4</threshold>
							<split pos="left">
								<output>0.52456512618487161</output>
							</split>
							<split pos="right">
								<output>0.17670029941014415</output>
							</split>
						</split>
					</split>
					<split pos="right">
						<feature>19</feature>
						<threshold>14.2566996</threshold>
						<split pos="left">
							<output>-0.14368975950736451</output>
						</split>
						<split pos="right">
							<output>0.42084454240364499</output>
						</split>
					</split>
				</split>
				<split pos="right">
					<feature>135</feature>
					<threshold>39</threshold>
					<split pos="left">
						<output>0.1356653315131329</output>
					</split>
					<split pos="right">
						<feature>127</feature>
						<threshold>20</threshold>
						<split pos="left">
							<output>0.780534043846839</output>
						</split>
						<split pos="right">
							<output>0.52399888574141529</output>
						</split>
					</split>
				</split>
			</split>
		</tree>
		<tree id="14" weight="0.100000001">
			<split>
				<feature>134</feature>
				<threshold>75</threshold>
				<split pos="left">
					<feature>134</feature>
					<threshold>2</threshold>
					<split pos="left">
						<feature>3</feature>
						<threshold>2</threshold>
						<split pos="left">
							<feature>65</feature>
							<threshold>0.00902200025</threshold>
							<split pos="left">
								<output>-0.46557202267765641</output>
							</split>
							<split pos="right">
								<feature>127</feature>
								<threshold>28</threshold>
								<split pos="left">
									<feature>108</feature>
									<threshold>18.8652153</threshold>
									<split pos="left">
										<output>0.078355229709477295</output>
									</split>
									<split pos="right">
										<output>0.28677785453729138</output>
									</split>
								</split>
								<split pos="right">
									<output>-0.18074426268477736</output>
								</split>
							</split>
						</split>
						<split pos="right">
							<feature>14</feature>
							<threshold>4</threshold>
							<split pos="left">
								<output>0.46471972912355558</output>
							</split>
							<split pos="right">
								<output>0.17582786871876382</output>
							</split>
						</split>
					</split>
					<split pos="right">
						<output>0.2372324324965264</output>
					</split>
				</split>
				<split pos="right">
					<feature>135</feature>
					<threshold>38</threshold>
					<split pos="left">
						<output>0.10727680181361879</output>
					</split>
					<split pos="right">
						<feature>127</feature>
						<threshold>20</threshold>
						<split pos="left">
							<output>0.73835654885376345</output>
						</split>
						<split pos="right">
							<output>0.48373828225502791</output>
						</split>
					</split>
				</split>
			</split>
		</tree>
		<tree id="15" weight="0.100000001">
			<split>
				<feature>134</feature>
				<threshold>64</threshold>
				<split pos="left">
					<feature>108</feature>
					<threshold>19.8316593</threshold>
					<split pos="left">
						<feature>65</feature>
						<threshold>0.00939899962</threshold>
						<split pos="left">
							<output>-0.42360535215038786</output>
						</split>
						<split pos="right">
							<feature>127</feature>
							<threshold>27</threshold>
							<split pos="left">
								<output>0.11543308137835974</output>
							</split>
							<split pos="right">
								<output>-0.14689054837225138</output>
							</split>
						</split>
					</split>
					<split pos="right">
						<feature>135</feature>
						<threshold>24540</threshold>
						<split pos="left">
							<feature>134</feature>
							<threshold>2</threshold>
							<split pos="left">
								<feature>14</feature>
								<threshold>4</threshold>
								<split pos="left">
									<output>0.37741164131635541</output>
								</split>
								<split pos="right">
									<output>0.086427819782159299</output>
								</split>
							</split>
							<split pos="right">
								<output>0.4848927221241307</output>
							</split>
						</split>
						<split pos="right">
							<output>1.4070231808589231</output>
						</split>
					</split>
				</split>
				<split pos="right">
					<feature>135</feature>
					<threshold>34</threshold>
					<split pos="left">
						<output>0.076880709365678063</output>
					</split>
					<split pos="right">
						<feature>127</feature>
						<threshold>19</threshold>
						<split pos="left">
							<output>0.70623031842944184</output>
						</split>
						<split pos="right">
							<output>0.4486461578602487</output>
						</split>
					</split>
				</split>
			</split>
		</tree>
		<tree id="16" weight="0.100000001">
			<split>
				<feature>134</feature>
				<threshold>40</threshold>
				<split pos="left">
					<feature>108</feature>
					<threshold>21.9431801</threshold>
					<split pos="left">
						<feature>50</feature>
						<threshold>0.0242240001</threshold>
						<split pos="left">
							<output>-0.36796266577193393</output>
						</split>
						<split pos="right">
							<feature>127</feature>
							<threshold>25</threshold>
							<split pos="left">
								<output>0.15150618662839083</output>
							</split>
							<split pos="right">
								<feature>107</feature>
								<threshold>13.858386</threshold>
								<split pos="left">
									<feature>112</feature>
									<threshold>-1.19757605</threshold>
									<split pos="left">
										<output>-0.1501495626022529</output>
									</split>
									<split pos="right">
										<output>0.49191216280183403</output>
									</split>
								</split>
								<split pos="right">
									<output>0.28786695049659949</output>
								</split>
							</split>
						</split>
					</split>
					<split pos="right">
						<feature>134</feature>
						<threshold>1</threshold>
						<split pos="left">
							<output>0.17584558357948687</output>
						</split>
						<split pos="right">
							<output>0.45932986298518658</output>
						</split>
					</split>
				</split>
				<split pos="right">
					<feature>135</feature>
					<threshold>34</threshold>
					<split pos="left">
						<output>0.094784569739805161</output>
					</split>
					<split pos="right">
						<feature>127</feature>
						<threshold>19</threshold>
						<split pos="left">
							<output>0.64023250774653429</output>
						</split>
						<split pos="right">
							<output>0.40565972150556845</output>
						</split>
					</split>
				</split>
			</split>
		</tree>
		<tree id="17" weight="0.100000001">
			<split>
				<feature>134</feature>
				<threshold>14</threshold>
				<split pos="left">
					<feature>3</feature>
					<threshold>2</threshold>
					<split pos="left">
						<feature>113</feature>
						<threshold>-7.93848896</threshold>
						<split pos="left">
							<output>-0.27663233403285747</output>
						</split>
						<split pos="right">
							<feature>129</feature>
							<threshold>2</threshold>
							<split pos="left">
								<feature>14</feature>
								<threshold>3</threshold>
								<split pos="left">
									<output>0.38993080988417345</output>
								</split>
								<split pos="right">
									<feature>134</feature>
									<threshold>1</threshold>
									<split pos="left">
										<output>-0.11219173395726831</output>
									</split>
									<split pos="right">
										<output>-0.23208493497892049</output>
									</split>
								</split>
							</split>
							<split pos="right">
								<output>0.17167282831916789</output>
							</split>
						</split>
					</split>
					<split pos="right">
						<feature>134</feature>
						<threshold>0</threshold>
						<split pos="left">
							<output>0.21245998531834107</output>
						</split>
						<split pos="right">
							<output>0.32981654541833505</output>
						</split>
					</split>
				</split>
				<split pos="right">
					<feature>135</feature>
					<threshold>542</threshold>
					<split pos="left">
						<feature>18</feature>
						<threshold>16.1156693</threshold>
						<split pos="left">
							<output>0.088001588337719164</output>
						</split>
						<split pos="right">
							<output>0.49794762661946512</output>
						</split>
					</split>
					<split pos="right">
						<output>0.55648932640690196</output>
					</split>
				</split>
			</split>
		</tree>
		<tree id="18" weight="0.100000001">
			<split>
				<feature>134</feature>
				<threshold>116</threshold>
				<split pos="left">
					<feature>108</feature>
					<threshold>21.8214188</threshold>
					<split pos="left">
						<feature>109</feature>
						<threshold>15.2114038</threshold>
						<split pos="left">
							<feature>65</feature>
							<threshold>0.00938900001</threshold>
							<split pos="left">
								<output>-0.39276508805138283</output>
							</split>
							<split pos="right">
								<feature>14</feature>
								<threshold>3</threshold>
								<split pos="left">
									<output>0.38550045263918192</output>
								</split>
								<split pos="right">
									<feature>72</feature>
									<threshold>16.7923336</threshold>
									<split pos="left">
										<feature>14</feature>
										<threshold>4</threshold>
										<split pos="left">
											<output>0.088415483649338766</output>
										</split>
										<split pos="right">
											<output>-0.1663839345793694</output>
										</split>
									</split>
									<split pos="right">
										<output>0.27327640529363045</output>
									</split>
								</split>
							</split>
						</split>
						<split pos="right">
							<output>0.25240808205099458</output>
						</split>
					</split>
					<split pos="right">
						<feature>135</feature>
						<threshold>7</threshold>
						<split pos="left">
							<output>0.15943696142424171</output>
						</split>
						<split pos="right">
							<output>0.57813852582427538</output>
						</split>
					</split>
				</split>
				<split pos="right">
					<feature>135</feature>
					<threshold>66</threshold>
					<split pos="left">
						<output>0.083405649839489865</output>
					</split>
					<split pos="right">
						<output>0.51018479749160817</output>
					</split>
				</split>
			</split>
		</tree>
		<tree id="19" weight="0.100000001">
			<split>
				<feature>134</feature>
				<threshold>8</threshold>
				<split pos="left">
					<feature>108</feature>
					<threshold>21.8214188</threshold>
					<split pos="left">
						<feature>49</feature>
						<threshold>0.153845996</threshold>
						<split pos="left">
							<feature>48</feature>
							<threshold>1.5</threshold>
							<split pos="left">
								<feature>123</feature>
								<threshold>-10.1195259</threshold>
								<split pos="left">
									<output>-0.32609708657324682</output>
								</split>
								<split pos="right">
									<output>-0.062527857041908746</output>
								</split>
							</split>
							<split pos="right">
								<output>1.4019452461457567</output>
							</split>
						</split>
						<split pos="right">
							<output>0.13320914641804016</output>
						</split>
					</split>
					<split pos="right">
						<feature>135</feature>
						<threshold>593</threshold>
						<split pos="left">
							<feature>127</feature>
							<threshold>24</threshold>
							<split pos="left">
								<output>0.38053221611623916</output>
							</split>
							<split pos="right">
								<output>0.12115752442549817</output>
							</split>
						</split>
						<split pos="right">
							<output>1.2088824803403218</output>
						</split>
					</split>
				</split>
				<split pos="right">
					<feature>135</feature>
					<threshold>1001</threshold>
					<split pos="left">
						<feature>18</feature>
						<threshold>12.1347265</threshold>
						<split pos="left">
							<output>-0.085172854884721552</output>
						</split>
						<split pos="right">
							<output>0.33573212524048007</output>
						</split>
					</split>
					<split pos="right">
						<output>0.53643565226602197</output>
					</split>
				</split>
			</split>
		</tree>
		<tree id="20" weight="0.100000001">
			<split>
				<feature>134</feature>
				<threshold>117</threshold>
				<split pos="left">
					<feature>108</feature>
					<threshold>21.9431801</threshold>
					<split pos="left">
						<feature>72</feature>
						<threshold>16.3303661</threshold>
						<split pos="left">
							<feature>14</feature>
							<threshold>4</threshold>
							<split pos="left">
								<feature>74</feature>
								<threshold>13.3517752</threshold>
								<split pos="left">
									<feature>126</feature>
									<threshold>1</threshold>
									<split pos="left">
										<output>-0.0054557514713545622</output>
									</split>
									<split pos="right">
										<output>0.61364353973970243</output>
									</split>
								</split>
								<split pos="right">
									<output>0.83829915460429461</output>
								</split>
							</split>
							<split pos="right">
								<feature>89</feature>
								<threshold>1.19031799</threshold>
								<split pos="left">
									<output>-0.33439774302954672</output>
								</split>
								<split pos="right">
									<output>-0.050293403446559193</output>
								</split>
							</split>
						</split>
						<split pos="right">
							<output>0.32639058208713512</output>
						</split>
					</split>
					<split pos="right">
						<feature>135</feature>
						<threshold>7</threshold>
						<split pos="left">
							<output>0.12046158534394802</output>
						</split>
						<split pos="right">
							<output>0.51341272913127878</output>
						</split>
					</split>
				</split>
				<split pos="right">
					<feature>135</feature>
					<threshold>66</threshold>
					<split pos="left">
						<output>0.051543436019664109</output>
					</split>
					<split pos="right">
						<output>0.4506493053860437</output>
					</split>
				</split>
			</split>
		</tree>
		<tree id="21" weight="0.100000001">
			<split>
				<feature>134</feature>
				<threshold>117</threshold>
				<split pos="left">
					<feature>22</feature>
					<threshold>169</threshold>
					<split pos="left">
						<feature>109</feature>
						<threshold>18.0744381</threshold>
						<split pos="left">
							<feature>50</feature>
							<threshold>0.0250220001</threshold>
							<split pos="left">
								<output>-0.30843364033268128</output>
							</split>
							<split pos="right">
								<feature>14</feature>
								<threshold>4</threshold>
								<split pos="left">
									<feature>108</feature>
									<threshold>27.0805702</threshold>
									<split pos="left">
										<output>0.17629903246651271</output>
									</split>
									<split pos="right">
										<output>0.64287808898473453</output>
									</split>
								</split>
								<split pos="right">
									<feature>72</feature>
									<threshold>17.5416737</threshold>
									<split pos="left">
										<feature>136</feature>
										<threshold>29.3984318</threshold>
										<split pos="left">
											<feature>26</feature>
											<threshold>3</threshold>
											<split pos="left">
												<output>-0.17275033629481654</output>
											</split>
											<split pos="right">
												<output>-0.014704533412710434</output>
											</split>
										</split>
										<split pos="right">
											<output>0.1713615853874651</output>
										</split>
									</split>
									<split pos="right">
										<output>0.28420131027889184</output>
									</split>
								</split>
							</split>
						</split>
						<split pos="right">
							<output>0.31349653874971439</output>
						</split>
					</split>
					<split pos="right">
						<output>-3.466433360644023</output>
					</split>
				</split>
				<split pos="right">
					<output>0.26699644267330869</output>
				</split>
			</split>
		</tree>
		<tree id="22" weight="0.100000001">
			<split>
				<feature>134</feature>
				<threshold>8</threshold>
				<split pos="left">
					<feature>109</feature>
					<threshold>18.160593</threshold>
					<split pos="left">
						<feature>14</feature>
						<threshold>4</threshold>
						<split pos="left">
							<feature>108</feature>
							<threshold>26.2590923</threshold>
							<split pos="left">
								<output>0.10772424112510695</output>
							</split>
							<split pos="right">
								<output>0.49970828813222279</output>
							</split>
						</split>
						<split pos="right">
							<feature>72</feature>
							<threshold>17.5416737</threshold>
							<split pos="left">
								<feature>30</feature>
								<threshold>4</threshold>
								<split pos="left">
									<output>-0.26694633421936664</output>
								</split>
								<split pos="right">
									<output>-0.033221550444812162</output>
								</split>
							</split>
							<split pos="right">
								<output>0.29201797168895238</output>
							</split>
						</split>
					</split>
					<split pos="right">
						<output>0.29723520982840806</output>
					</split>
				</split>
				<split pos="right">
					<feature>135</feature>
					<threshold>2040</threshold>
					<split pos="left">
						<feature>108</feature>
						<threshold>20.8406334</threshold>
						<split pos="left">
							<feature>17</feature>
							<threshold>16.0027256</threshold>
							<split pos="left">
								<output>-0.065757620463183231</output>
							</split>
							<split pos="right">
								<output>0.23587342299157024</output>
							</split>
						</split>
						<split pos="right">
							<output>0.45053841364773928</output>
						</split>
					</split>
					<split pos="right">
						<output>0.51244010537449369</output>
					</split>
				</split>
			</split>
		</tree>
		<tree id="23" weight="0.100000001">
			<split>
				<feature>134</feature>
				<threshold>116</threshold>
				<split pos="left">
					<feature>109</feature>
					<threshold>18.0690861</threshold>
					<split pos="left">
						<feature>65</feature>
						<threshold>0.00677799992</threshold>
						<split pos="left">
							<output>-0.36393140368456711</output>
						</split>
						<split pos="right">
							<feature>14</feature>
							<threshold>3</threshold>
							<split pos="left">
								<output>0.35970445161255021</output>
							</split>
							<split pos="right">
								<feature>130</feature>
								<threshold>48233</threshold>
								<split pos="left">
									<feature>107</feature>
									<threshold>16.2280922</threshold>
									<split pos="left">
										<feature>136</feature>
										<threshold>134.800003</threshold>
										<split pos="left">
											<feature>112</feature>
											<threshold>-0.897212982</threshold>
											<split pos="left">
												<feature>129</feature>
												<threshold>5</threshold>
												<split pos="left">
													<output>-0.14415758072939613</output>
												</split>
												<split pos="right">
													<output>0.039594535440300387</output>
												</split>
											</split>
											<split pos="right">
												<output>0.30466396041339006</output>
											</split>
										</split>
										<split pos="right">
											<output>0.37394447312411072</output>
										</split>
									</split>
									<split pos="right">
										<output>0.23626376320814976</output>
									</split>
								</split>
								<split pos="right">
									<output>0.22519690867721931</output>
								</split>
							</split>
						</split>
					</split>
					<split pos="right">
						<output>0.28254509697609231</output>
					</split>
				</split>
				<split pos="right">
					<output>0.22738950567046753</output>
				</split>
			</split>
		</tree>
		<tree id="24" weight="0.100000001">
			<split>
				<feature>134</feature>
				<threshold>255</threshold>
				<split pos="left">
					<feature>109</feature>
					<threshold>18.0690861</threshold>
					<split pos="left">
						<feature>3</feature>
						<threshold>1</threshold>
						<split pos="left">
							<feature>134</feature>
							<threshold>17</threshold>
							<split pos="left">
								<feature>124</feature>
								<threshold>-15.8116007</threshold>
								<split pos="left">
									<output>-0.3597416658171102</output>
								</split>
								<split pos="right">
									<feature>134</feature>
									<threshold>0</threshold>
									<split pos="left">
										<output>-0.040341402238806993</output>
									</split>
									<split pos="right">
										<output>-0.25126207538847878</output>
									</split>
								</split>
							</split>
							<split pos="right">
								<output>-0.20495150850854998</output>
							</split>
						</split>
						<split pos="right">
							<feature>134</feature>
							<threshold>16</threshold>
							<split pos="left">
								<feature>14</feature>
								<threshold>4</threshold>
								<split pos="left">
									<output>0.24441357175814815</output>
								</split>
								<split pos="right">
									<feature>72</feature>
									<threshold>17.5416737</threshold>
									<split pos="left">
										<output>-0.043014950611122163</output>
									</split>
									<split pos="right">
										<output>0.23343666655898934</output>
									</split>
								</split>
							</split>
							<split pos="right">
								<output>0.24489103905438289</output>
							</split>
						</split>
					</split>
					<split pos="right">
						<output>0.27463805945153386</output>
					</split>
				</split>
				<split pos="right">
					<output>0.2283844597397286</output>
				</split>
			</split>
		</tree>
		<tree id="25" weight="0.100000001">
			<split>
				<feature>134</feature>
				<threshold>241</threshold>
				<split pos="left">
					<feature>109</feature>
					<threshold>19.4285221</threshold>
					<split pos="left">
						<feature>65</feature>
						<threshold>0.0094010001</threshold>
						<split pos="left">
							<output>-0.28184395734729112</output>
						</split>
						<split pos="right">
							<feature>130</feature>
							<threshold>61278</threshold>
							<split pos="left">
								<feature>14</feature>
								<threshold>3</threshold>
								<split pos="left">
									<output>0.26616280087362953</output>
								</split>
								<split pos="right">
									<feature>107</feature>
									<threshold>15.8650417</threshold>
									<split pos="left">
										<feature>129</feature>
										<threshold>5</threshold>
										<split pos="left">
											<feature>134</feature>
											<threshold>79</threshold>
											<split pos="left">
												<feature>3</feature>
												<threshold>2</threshold>
												<split pos="left">
													<output>-0.12640074855530495</output>
												</split>
												<split pos="right">
													<output>0.075087207111127721</output>
												</split>
											</split>
											<split pos="right">
												<output>-0.20938434385242941</output>
											</split>
										</split>
										<split pos="right">
											<output>0.10893729061528409</output>
										</split>
									</split>
									<split pos="right">
										<output>0.22297678036347685</output>
									</split>
								</split>
							</split>
							<split pos="right">
								<output>0.34740652014883072</output>
							</split>
						</split>
					</split>
					<split pos="right">
						<output>0.27863727499349794</output>
					</split>
				</split>
				<split pos="right">
					<output>0.20517767193815734</output>
				</split>
			</split>
		</tree>
		<tree id="26" weight="0.100000001">
			<split>
				<feature>134</feature>
				<threshold>75</threshold>
				<split pos="left">
					<feature>72</feature>
					<threshold>17.5416737</threshold>
					<split pos="left">
						<feature>127</feature>
						<threshold>27</threshold>
						<split pos="left">
							<feature>108</feature>
							<threshold>27.0069809</threshold>
							<split pos="left">
								<feature>129</feature>
								<threshold>0</threshold>
								<split pos="left">
									<feature>128</feature>
									<threshold>17</threshold>
									<split pos="left">
										<output>-0.10832087324818258</output>
									</split>
									<split pos="right">
										<output>0.37536573998928108</output>
									</split>
								</split>
								<split pos="right">
									<output>0.27148368902511999</output>
								</split>
							</split>
							<split pos="right">
								<output>0.46914935125566737</output>
							</split>
						</split>
						<split pos="right">
							<feature>30</feature>
							<threshold>2</threshold>
							<split pos="left">
								<output>-0.24827369999831742</output>
							</split>
							<split pos="right">
								<feature>117</feature>
								<threshold>-32.5609398</threshold>
								<split pos="left">
									<output>0.31010361996155622</output>
								</split>
								<split pos="right">
									<output>-0.039708060603950067</output>
								</split>
							</split>
						</split>
					</split>
					<split pos="right">
						<output>0.26902696241477908</output>
					</split>
				</split>
				<split pos="right">
					<feature>135</feature>
					<threshold>34</threshold>
					<split pos="left">
						<output>-0.12617954130533396</output>
					</split>
					<split pos="right">
						<output>0.30588001390073805</output>
					</split>
				</split>
			</split>
		</tree>
		<tree id="27" weight="0.100000001">
			<split>
				<feature>135</feature>
				<threshold>238</threshold>
				<split pos="left">
					<feature>72</feature>
					<threshold>19.5592422</threshold>
					<split pos="left">
						<feature>134</feature>
						<threshold>878</threshold>
						<split pos="left">
							<feature>14</feature>
							<threshold>4</threshold>
							<split pos="left">
								<feature>108</feature>
								<threshold>35.1328926</threshold>
								<split pos="left">
									<feature>126</feature>
									<threshold>1</threshold>
									<split pos="left">
										<output>0.0085492173336165923</output>
									</split>
									<split pos="right">
										<output>0.49516341227694288</output>
									</split>
								</split>
								<split pos="right">
									<output>0.95780699558265847</output>
								</split>
							</split>
							<split pos="right">
								<feature>49</feature>
								<threshold>0.153845996</threshold>
								<split pos="left">
									<feature>125</feature>
									<threshold>-31.7867889</threshold>
									<split pos="left">
										<output>-0.63919315186727654</output>
									</split>
									<split pos="right">
										<feature>134</feature>
										<threshold>383</threshold>
										<split pos="left">
											<output>-0.15591088610974474</output>
										</split>
										<split pos="right">
											<output>-0.42374749828132596</output>
										</split>
									</split>
								</split>
								<split pos="right">
									<output>0.081599404877598855</output>
								</split>
							</split>
						</split>
						<split pos="right">
							<output>-0.27507343907066023</output>
						</split>
					</split>
					<split pos="right">
						<output>0.28489036510911936</output>
					</split>
				</split>
				<split pos="right">
					<output>0.30841211053223788</output>
				</split>
			</split>
		</tree>
		<tree id="28" weight="0.100000001">
			<split>
				<feature>134</feature>
				<threshold>1537</threshold>
				<split pos="left">
					<feature>107</feature>
					<threshold>15.6809454</threshold>
					<split pos="left">
						<feature>127</feature>
						<threshold>27</threshold>
						<split pos="left">
							<feature>108</feature>
							<threshold>22.0395622</threshold>
							<split pos="left">
								<feature>84</feature>
								<threshold>12.6744738</threshold>
								<split pos="left">
									<feature>128</feature>
									<threshold>15</threshold>
									<split pos="left">
										<feature>129</feature>
										<threshold>2</threshold>
										<split pos="left">
											<output>-0.10360058445577908</output>
										</split>
										<split pos="right">
											<output>0.22081941247329262</output>
										</split>
									</split>
									<split pos="right">
										<output>0.3058563011351475</output>
									</split>
								</split>
								<split pos="right">
									<output>0.57865771402487409</output>
								</split>
							</split>
							<split pos="right">
								<output>0.35001330346158888</output>
							</split>
						</split>
						<split pos="right">
							<feature>134</feature>
							<threshold>420</threshold>
							<split pos="left">
								<feature>30</feature>
								<threshold>2</threshold>
								<split pos="left">
									<output>-0.22832295558919535</output>
								</split>
								<split pos="right">
									<output>-0.010843988184083282</output>
								</split>
							</split>
							<split pos="right">
								<output>-0.33844933733877774</output>
							</split>
						</split>
					</split>
					<split pos="right">
						<output>0.26253761888991001</output>
					</split>
				</split>
				<split pos="right">
					<output>0.22516521007336021</output>
				</split>
			</split>
		</tree>
		<tree id="29" weight="0.100000001">
			<split>
				<feature>134</feature>
				<threshold>75</threshold>
				<split pos="left">
					<feature>2</feature>
					<threshold>2</threshold>
					<split pos="left">
						<feature>130</feature>
						<threshold>48250</threshold>
						<split pos="left">
							<feature>30</feature>
							<threshold>4</threshold>
							<split pos="left">
								<feature>11</feature>
								<threshold>1074</threshold>
								<split pos="left">
									<feature>3</feature>
									<threshold>3</threshold>
									<split pos="left">
										<feature>15</feature>
										<threshold>29</threshold>
										<split pos="left">
											<output>0.25031750495121652</output>
										</split>
										<split pos="right">
											<feature>14</feature>
											<threshold>2</threshold>
											<split pos="left">
												<output>1.2944884840104021</output>
											</split>
											<split pos="right">
												<feature>112</feature>
												<threshold>-2.58927488</threshold>
												<split pos="left">
													<output>-0.17899526720477377</output>
												</split>
												<split pos="right">
													<output>0.092503162441114506</output>
												</split>
											</split>
										</split>
									</split>
									<split pos="right">
										<output>0.34073942714433858</output>
									</split>
								</split>
								<split pos="right">
									<output>-0.42542827208088124</output>
								</split>
							</split>
							<split pos="right">
								<output>0.042283693600822896</output>
							</split>
						</split>
						<split pos="right">
							<output>0.17672341784953349</output>
						</split>
					</split>
					<split pos="right">
						<output>0.32366544894820848</output>
					</split>
				</split>
				<split pos="right">
					<output>0.13204288172162326</output>
				</split>
			</split>
		</tree>
		<tree id="30" weight="0.100000001">
			<split>
				<feature>135</feature>
				<threshold>442</threshold>
				<split pos="left">
					<feature>72</feature>
					<threshold>19.5592422</threshold>
					<split pos="left">
						<feature>14</feature>
						<threshold>4</threshold>
						<split pos="left">
							<feature>108</feature>
							<threshold>35.1742973</threshold>
							<split pos="left">
								<feature>126</feature>
								<threshold>1</threshold>
								<split pos="left">
									<feature>129</feature>
									<threshold>2</threshold>
									<split pos="left">
										<output>-0.085107374495909396</output>
									</split>
									<split pos="right">
										<output>0.31927128128280752</output>
									</split>
								</split>
								<split pos="right">
									<output>0.42252295638215859</output>
								</split>
							</split>
							<split pos="right">
								<output>0.80298998273531796</output>
							</split>
						</split>
						<split pos="right">
							<feature>49</feature>
							<threshold>0.153845996</threshold>
							<split pos="left">
								<feature>134</feature>
								<threshold>155</threshold>
								<split pos="left">
									<feature>125</feature>
									<threshold>-31.7867889</threshold>
									<split pos="left">
										<output>-0.61303153974481339</output>
									</split>
									<split pos="right">
										<output>-0.13884385856534248</output>
									</split>
								</split>
								<split pos="right">
									<output>-0.22176116794180711</output>
								</split>
							</split>
							<split pos="right">
								<output>0.06581175816357647</output>
							</split>
						</split>
					</split>
					<split pos="right">
						<output>0.23306917655449891</output>
					</split>
				</split>
				<split pos="right">
					<output>0.28908751452380682</output>
				</split>
			</split>
		</tree>
		<tree id="31" weight="0.100000001">
			<split>
				<feature>135</feature>
				<threshold>103</threshold>
				<split pos="left">
					<feature>134</feature>
					<threshold>1234</threshold>
					<split pos="left">
						<feature>107</feature>
						<threshold>17.7303333</threshold>
						<split pos="left">
							<feature>55</feature>
							<threshold>0.00550199999</threshold>
							<split pos="left">
								<feature>15</feature>
								<threshold>30</threshold>
								<split pos="left">
									<output>0.62224957188506524</output>
								</split>
								<split pos="right">
									<feature>134</feature>
									<threshold>489</threshold>
									<split pos="left">
										<output>-0.18718687651670018</output>
									</split>
									<split pos="right">
										<output>-1.0575742542266489</output>
									</split>
								</split>
							</split>
							<split pos="right">
								<feature>129</feature>
								<threshold>9</threshold>
								<split pos="left">
									<feature>14</feature>
									<threshold>3</threshold>
									<split pos="left">
										<output>0.27798921659112663</output>
									</split>
									<split pos="right">
										<feature>128</feature>
										<threshold>103</threshold>
										<split pos="left">
											<output>-0.058942424739437678</output>
										</split>
										<split pos="right">
											<output>0.21441692646447141</output>
										</split>
									</split>
								</split>
								<split pos="right">
									<output>0.32674247448078664</output>
								</split>
							</split>
						</split>
						<split pos="right">
							<output>0.23979114548022745</output>
						</split>
					</split>
					<split pos="right">
						<output>-0.39640970520613328</output>
					</split>
				</split>
				<split pos="right">
					<output>0.21771225376483053</output>
				</split>
			</split>
		</tree>
		<tree id="32" weight="0.100000001">
			<split>
				<feature>130</feature>
				<threshold>63616</threshold>
				<split pos="left">
					<feature>107</feature>
					<threshold>14.0222054</threshold>
					<split pos="left">
						<feature>134</feature>
						<threshold>6283</threshold>
						<split pos="left">
							<feature>110</feature>
							<threshold>28.9000225</threshold>
							<split pos="left">
								<feature>123</feature>
								<threshold>-17.3491859</threshold>
								<split pos="left">
									<output>-0.37559510334790835</output>
								</split>
								<split pos="right">
									<feature>134</feature>
									<threshold>1</threshold>
									<split pos="left">
										<feature>123</feature>
										<threshold>-17.3491821</threshold>
										<split pos="left">
											<output>1.6958449852455935</output>
										</split>
										<split pos="right">
											<feature>127</feature>
											<threshold>32</threshold>
											<split pos="left">
												<output>0.071384956271672156</output>
											</split>
											<split pos="right">
												<output>-0.11493751552312642</output>
											</split>
										</split>
									</split>
									<split pos="right">
										<output>-0.10153772181460333</output>
									</split>
								</split>
							</split>
							<split pos="right">
								<feature>134</feature>
								<threshold>5</threshold>
								<split pos="left">
									<output>0.061410085540571507</output>
								</split>
								<split pos="right">
									<output>0.34595195465687401</output>
								</split>
							</split>
						</split>
						<split pos="right">
							<output>-0.53804983163548958</output>
						</split>
					</split>
					<split pos="right">
						<output>0.17502029349126247</output>
					</split>
				</split>
				<split pos="right">
					<output>0.26747019521933707</output>
				</split>
			</split>
		</tree>
		<tree id="33" weight="0.100000001">
			<split>
				<feature>134</feature>
				<threshold>1523</threshold>
				<split pos="left">
					<feature>3</feature>
					<threshold>2</threshold>
					<split pos="left">
						<feature>133</feature>
						<threshold>15</threshold>
						<split pos="left">
							<feature>49</feature>
							<threshold>0.239999995</threshold>
							<split pos="left">
								<feature>14</feature>
								<threshold>3</threshold>
								<split pos="left">
									<output>0.35844582186826357</output>
								</split>
								<split pos="right">
									<feature>107</feature>
									<threshold>10.7483816</threshold>
									<split pos="left">
										<feature>134</feature>
										<threshold>1379</threshold>
										<split pos="left">
											<feature>50</feature>
											<threshold>0.0187609997</threshold>
											<split pos="left">
												<output>-0.25867834297137404</output>
											</split>
											<split pos="right">
												<feature>14</feature>
												<threshold>4</threshold>
												<split pos="left">
													<output>0.18473669191172315</output>
												</split>
												<split pos="right">
													<output>-0.041839359010577969</output>
												</split>
											</split>
										</split>
										<split pos="right">
											<output>-1.2211873180439401</output>
										</split>
									</split>
									<split pos="right">
										<output>0.23646673721327788</output>
									</split>
								</split>
							</split>
							<split pos="right">
								<output>0.31231638780773818</output>
							</split>
						</split>
						<split pos="right">
							<output>-0.17288506447344068</output>
						</split>
					</split>
					<split pos="right">
						<output>0.15566568561959707</output>
					</split>
				</split>
				<split pos="right">
					<output>0.19147474800277417</output>
				</split>
			</split>
		</tree>
		<tree id="34" weight="0.100000001">
			<split>
				<feature>130</feature>
				<threshold>61856</threshold>
				<split pos="left">
					<feature>129</feature>
					<threshold>10</threshold>
					<split pos="left">
						<feature>134</feature>
						<threshold>1757</threshold>
						<split pos="left">
							<feature>135</feature>
							<threshold>8</threshold>
							<split pos="left">
								<feature>134</feature>
								<threshold>234</threshold>
								<split pos="left">
									<feature>11</feature>
									<threshold>1163</threshold>
									<split pos="left">
										<feature>14</feature>
										<threshold>3</threshold>
										<split pos="left">
											<output>0.20332754095617878</output>
										</split>
										<split pos="right">
											<feature>11</feature>
											<threshold>11</threshold>
											<split pos="left">
												<output>0.30497397057898928</output>
											</split>
											<split pos="right">
												<feature>106</feature>
												<threshold>36.1210594</threshold>
												<split pos="left">
													<output>-0.11673756687729721</output>
												</split>
												<split pos="right">
													<output>0.085902840539113567</output>
												</split>
											</split>
										</split>
									</split>
									<split pos="right">
										<output>-0.33389076138344859</output>
									</split>
								</split>
								<split pos="right">
									<output>-0.37724415424712487</output>
								</split>
							</split>
							<split pos="right">
								<output>0.11565809431788841</output>
							</split>
						</split>
						<split pos="right">
							<output>-0.26744523266164666</output>
						</split>
					</split>
					<split pos="right">
						<output>0.20882898563803967</output>
					</split>
				</split>
				<split pos="right">
					<output>0.21897388147183483</output>
				</split>
			</split>
		</tree>
		<tree id="35" weight="0.100000001">
			<split>
				<feature>49</feature>
				<threshold>0.230768993</threshold>
				<split pos="left">
					<feature>22</feature>
					<threshold>169</threshold>
					<split pos="left">
						<feature>3</feature>
						<threshold>1</threshold>
						<split pos="left">
							<feature>134</feature>
							<threshold>22</threshold>
							<split pos="left">
								<feature>122</feature>
								<threshold>-12.8671684</threshold>
								<split pos="left">
									<output>-0.27375807798687107</output>
								</split>
								<split pos="right">
									<output>-0.012535387943512581</output>
								</split>
							</split>
							<split pos="right">
								<output>-0.15313229576756834</output>
							</split>
						</split>
						<split pos="right">
							<feature>135</feature>
							<threshold>238</threshold>
							<split pos="left">
								<feature>14</feature>
								<threshold>4</threshold>
								<split pos="left">
									<output>0.19452570997935559</output>
								</split>
								<split pos="right">
									<feature>136</feature>
									<threshold>38.9919243</threshold>
									<split pos="left">
										<output>-0.027497160013173122</output>
									</split>
									<split pos="right">
										<output>0.26108386578546755</output>
									</split>
								</split>
							</split>
							<split pos="right">
								<output>0.38903705950691037</output>
							</split>
						</split>
					</split>
					<split pos="right">
						<output>-3.2044907745407825</output>
					</split>
				</split>
				<split pos="right">
					<feature>135</feature>
					<threshold>155</threshold>
					<split pos="left">
						<output>0.12824270301487931</output>
					</split>
					<split pos="right">
						<output>0.46427743776618652</output>
					</split>
				</split>
			</split>
		</tree>
		<tree id="36" weight="0.100000001">
			<split>
				<feature>49</feature>
				<threshold>0.239999995</threshold>
				<split pos="left">
					<feature>50</feature>
					<threshold>0.0470880009</threshold>
					<split pos="left">
						<feature>15</feature>
						<threshold>38</threshold>
						<split pos="left">
							<output>0.53914757089744669</output>
						</split>
						<split pos="right">
							<feature>129</feature>
							<threshold>0</threshold>
							<split pos="left">
								<output>-0.28436474045665588</output>
							</split>
							<split pos="right">
								<feature>2</feature>
								<threshold>4</threshold>
								<split pos="left">
									<output>-0.031078873863958238</output>
								</split>
								<split pos="right">
									<output>1.1676586249508423</output>
								</split>
							</split>
						</split>
					</split>
					<split pos="right">
						<feature>134</feature>
						<threshold>145</threshold>
						<split pos="left">
							<feature>130</feature>
							<threshold>60787</threshold>
							<split pos="left">
								<feature>133</feature>
								<threshold>12</threshold>
								<split pos="left">
									<output>0.097120018549337134</output>
								</split>
								<split pos="right">
									<output>-0.096412706124544709</output>
								</split>
							</split>
							<split pos="right">
								<output>0.33152847628121407</output>
							</split>
						</split>
						<split pos="right">
							<output>0.16477064149354331</output>
						</split>
					</split>
				</split>
				<split pos="right">
					<feature>135</feature>
					<threshold>155</threshold>
					<split pos="left">
						<output>0.11923209221976844</output>
					</split>
					<split pos="right">
						<output>0.42283647855344247</output>
					</split>
				</split>
			</split>
		</tree>
		<tree id="37" weight="0.100000001">
			<split>
				<feature>3</feature>
				<threshold>3</threshold>
				<split pos="left">
					<feature>130</feature>
					<threshold>48301</threshold>
					<split pos="left">
						<feature>129</feature>
						<threshold>9</threshold>
						<split pos="left">
							<feature>134</feature>
							<threshold>1334</threshold>
							<split pos="left">
								<feature>26</feature>
								<threshold>3</threshold>
								<split pos="left">
									<feature>11</feature>
									<threshold>1073</threshold>
									<split pos="left">
										<output>-0.10615490133613584</output>
									</split>
									<split pos="right">
										<output>-0.42848714799361765</output>
									</split>
								</split>
								<split pos="right">
									<output>0.00035356073933425744</output>
								</split>
							</split>
							<split pos="right">
								<output>-0.37963561925262757</output>
							</split>
						</split>
						<split pos="right">
							<output>0.15560002127964653</output>
						</split>
					</split>
					<split pos="right">
						<feature>108</feature>
						<threshold>21.0704079</threshold>
						<split pos="left">
							<feature>64</feature>
							<threshold>0.233333007</threshold>
							<split pos="left">
								<feature>134</feature>
								<threshold>0</threshold>
								<split pos="left">
									<output>0.11532228660830901</output>
								</split>
								<split pos="right">
									<output>-0.099976647000762586</output>
								</split>
							</split>
							<split pos="right">
								<output>0.47729690945980047</output>
							</split>
						</split>
						<split pos="right">
							<output>0.50935025256882749</output>
						</split>
					</split>
				</split>
				<split pos="right">
					<output>0.32832411857876576</output>
				</split>
			</split>
		</tree>
		<tree id="38" weight="0.100000001">
			<split>
				<feature>108</feature>
				<threshold>26.9390297</threshold>
				<split pos="left">
					<feature>134</feature>
					<threshold>5365</threshold>
					<split pos="left">
						<feature>30</feature>
						<threshold>5</threshold>
						<split pos="left">
							<feature>15</feature>
							<threshold>29</threshold>
							<split pos="left">
								<output>0.25602266371589688</output>
							</split>
							<split pos="right">
								<feature>65</feature>
								<threshold>0.00475399988</threshold>
								<split pos="left">
									<output>-0.35597822207018193</output>
								</split>
								<split pos="right">
									<feature>134</feature>
									<threshold>4103</threshold>
									<split pos="left">
										<feature>112</feature>
										<threshold>-2.30210495</threshold>
										<split pos="left">
											<feature>135</feature>
											<threshold>30</threshold>
											<split pos="left">
												<output>-0.097342217511489165</output>
											</split>
											<split pos="right">
												<output>0.13197530952583672</output>
											</split>
										</split>
										<split pos="right">
											<output>0.30913385207097815</output>
										</split>
									</split>
									<split pos="right">
										<output>-1.1278184307063059</output>
									</split>
								</split>
							</split>
						</split>
						<split pos="right">
							<feature>129</feature>
							<threshold>9</threshold>
							<split pos="left">
								<output>0.024156293047808412</output>
							</split>
							<split pos="right">
								<output>0.31828281630605887</output>
							</split>
						</split>
					</split>
					<split pos="right">
						<output>0.21017339016990982</output>
					</split>
				</split>
				<split pos="right">
					<output>0.2042514625696521</output>
				</split>
			</split>
		</tree>
		<tree id="39" weight="0.100000001">
			<split>
				<feature>3</feature>
				<threshold>3</threshold>
				<split pos="left">
					<feature>130</feature>
					<threshold>48301</threshold>
					<split pos="left">
						<feature>129</feature>
						<threshold>9</threshold>
						<split pos="left">
							<feature>134</feature>
							<threshold>1334</threshold>
							<split pos="left">
								<feature>136</feature>
								<threshold>54.1285706</threshold>
								<split pos="left">
									<feature>134</feature>
									<threshold>0</threshold>
									<split pos="left">
										<feature>26</feature>
										<threshold>4</threshold>
										<split pos="left">
											<output>-0.15801869905616603</output>
										</split>
										<split pos="right">
											<output>0.017512404486839113</output>
										</split>
									</split>
									<split pos="right">
										<output>-0.08657127299820605</output>
									</split>
								</split>
								<split pos="right">
									<output>0.1538469978492838</output>
								</split>
							</split>
							<split pos="right">
								<output>-0.33997896374265374</output>
							</split>
						</split>
						<split pos="right">
							<output>0.13346682324306483</output>
						</split>
					</split>
					<split pos="right">
						<feature>109</feature>
						<threshold>18.5312252</threshold>
						<split pos="left">
							<feature>108</feature>
							<threshold>20.9067421</threshold>
							<split pos="left">
								<output>0.053869983255966043</output>
							</split>
							<split pos="right">
								<output>0.41623273337540073</output>
							</split>
						</split>
						<split pos="right">
							<output>0.70705797929447023</output>
						</split>
					</split>
				</split>
				<split pos="right">
					<output>0.30116550568898703</output>
				</split>
			</split>
		</tree>
		<tree id="40" weight="0.100000001">
			<split>
				<feature>72</feature>
				<threshold>25.6913624</threshold>
				<split pos="left">
					<feature>127</feature>
					<threshold>24</threshold>
					<split pos="left">
						<feature>108</feature>
						<threshold>24.3607731</threshold>
						<split pos="left">
							<feature>134</feature>
							<threshold>5365</threshold>
							<split pos="left">
								<feature>109</feature>
								<threshold>17.9273758</threshold>
								<split pos="left">
									<feature>128</feature>
									<threshold>1</threshold>
									<split pos="left">
										<feature>94</feature>
										<threshold>28.7073421</threshold>
										<split pos="left">
											<feature>106</feature>
											<threshold>29.5083122</threshold>
											<split pos="left">
												<output>-0.080184203912978022</output>
											</split>
											<split pos="right">
												<output>0.29475189865539736</output>
											</split>
										</split>
										<split pos="right">
											<output>0.70706595175075782</output>
										</split>
									</split>
									<split pos="right">
										<output>0.3246192326722554</output>
									</split>
								</split>
								<split pos="right">
									<output>0.43653646567699622</output>
								</split>
							</split>
							<split pos="right">
								<output>0.30202663149037762</output>
							</split>
						</split>
						<split pos="right">
							<output>0.37958340851124195</output>
						</split>
					</split>
					<split pos="right">
						<feature>30</feature>
						<threshold>4</threshold>
						<split pos="left">
							<output>-0.13894754113884775</output>
						</split>
						<split pos="right">
							<output>0.031162393174270546</output>
						</split>
					</split>
				</split>
				<split pos="right">
					<output>0.21095110758844465</output>
				</split>
			</split>
		</tree>
		<tree id="41" weight="0.100000001">
			<split>
				<feature>133</feature>
				<threshold>11</threshold>
				<split pos="left">
					<feature>49</feature>
					<threshold>0.239999995</threshold>
					<split pos="left">
						<feature>14</feature>
						<threshold>4</threshold>
						<split pos="left">
							<feature>108</feature>
							<threshold>27.0034695</threshold>
							<split pos="left">
								<output>0.14345935357746264</output>
							</split>
							<split pos="right">
								<output>0.75765476906165274</output>
							</split>
						</split>
						<split pos="right">
							<feature>107</feature>
							<threshold>11.2295113</threshold>
							<split pos="left">
								<feature>49</feature>
								<threshold>0.125</threshold>
								<split pos="left">
									<output>-0.10770850036491174</output>
								</split>
								<split pos="right">
									<output>0.089741266303517239</output>
								</split>
							</split>
							<split pos="right">
								<output>0.22363280600432137</output>
							</split>
						</split>
					</split>
					<split pos="right">
						<output>0.27606680168222247</output>
					</split>
				</split>
				<split pos="right">
					<feature>134</feature>
					<threshold>0</threshold>
					<split pos="left">
						<feature>11</feature>
						<threshold>22</threshold>
						<split pos="left">
							<output>0.32341441950597055</output>
						</split>
						<split pos="right">
							<feature>30</feature>
							<threshold>2</threshold>
							<split pos="left">
								<output>-0.25776392380385693</output>
							</split>
							<split pos="right">
								<output>-0.027392945659199738</output>
							</split>
						</split>
					</split>
					<split pos="right">
						<output>-0.10853517485488079</output>
					</split>
				</split>
			</split>
		</tree>
		<tree id="42" weight="0.100000001">
			<split>
				<feature>3</feature>
				<threshold>3</threshold>
				<split pos="left">
					<feature>130</feature>
					<threshold>63665</threshold>
					<split pos="left">
						<feature>134</feature>
						<threshold>6283</threshold>
						<split pos="left">
							<feature>129</feature>
							<threshold>2</threshold>
							<split pos="left">
								<feature>134</feature>
								<threshold>0</threshold>
								<split pos="left">
									<feature>11</feature>
									<threshold>10</threshold>
									<split pos="left">
										<output>0.29190339124850911</output>
									</split>
									<split pos="right">
										<feature>65</feature>
										<threshold>0.00474799983</threshold>
										<split pos="left">
											<output>-0.41335450971341348</output>
										</split>
										<split pos="right">
											<feature>135</feature>
											<threshold>24164</threshold>
											<split pos="left">
												<output>-0.059206424753865339</output>
											</split>
											<split pos="right">
												<output>1.0535756596359036</output>
											</split>
										</split>
									</split>
								</split>
								<split pos="right">
									<output>-0.08331795134169738</output>
								</split>
							</split>
							<split pos="right">
								<feature>126</feature>
								<threshold>1</threshold>
								<split pos="left">
									<output>0.38203504566155644</output>
								</split>
								<split pos="right">
									<output>0.035948685715005174</output>
								</split>
							</split>
						</split>
						<split pos="right">
							<output>-0.48491137459344441</output>
						</split>
					</split>
					<split pos="right">
						<output>0.16822660384404195</output>
					</split>
				</split>
				<split pos="right">
					<output>0.27658842891347724</output>
				</split>
			</split>
		</tree>
		<tree id="43" weight="0.100000001">
			<split>
				<feature>3</feature>
				<threshold>3</threshold>
				<split pos="left">
					<feature>133</feature>
					<threshold>15</threshold>
					<split pos="left">
						<feature>49</feature>
						<threshold>0.238095</threshold>
						<split pos="left">
							<feature>14</feature>
							<threshold>4</threshold>
							<split pos="left">
								<feature>108</feature>
								<threshold>26.0561695</threshold>
								<split pos="left">
									<feature>134</feature>
									<threshold>35976</threshold>
									<split pos="left">
										<output>0.10747551530342096</output>
									</split>
									<split pos="right">
										<output>0.763631890185405</output>
									</split>
								</split>
								<split pos="right">
									<output>0.53666226106574955</output>
								</split>
							</split>
							<split pos="right">
								<feature>107</feature>
								<threshold>11.0204258</threshold>
								<split pos="left">
									<feature>134</feature>
									<threshold>21</threshold>
									<split pos="left">
										<output>-0.064145630531460912</output>
									</split>
									<split pos="right">
										<output>-0.12570309976065824</output>
									</split>
								</split>
								<split pos="right">
									<output>0.17421520450550837</output>
								</split>
							</split>
						</split>
						<split pos="right">
							<output>0.22669015360682657</output>
						</split>
					</split>
					<split pos="right">
						<feature>134</feature>
						<threshold>0</threshold>
						<split pos="left">
							<output>-0.12226837305177393</output>
						</split>
						<split pos="right">
							<output>-0.12910270735583537</output>
						</split>
					</split>
				</split>
				<split pos="right">
					<output>0.26112143870535204</output>
				</split>
			</split>
		</tree>
		<tree id="44" weight="0.100000001">
			<split>
				<feature>55</feature>
				<threshold>0.006116</threshold>
				<split pos="left">
					<feature>15</feature>
					<threshold>186</threshold>
					<split pos="left">
						<output>0.17222802506304569</output>
					</split>
					<split pos="right">
						<feature>130</feature>
						<threshold>65525</threshold>
						<split pos="left">
							<feature>52</feature>
							<threshold>0.0833330005</threshold>
							<split pos="left">
								<feature>123</feature>
								<threshold>-2.66951799</threshold>
								<split pos="left">
									<output>-0.18329411529042042</output>
								</split>
								<split pos="right">
									<output>0.07966653589509913</output>
								</split>
							</split>
							<split pos="right">
								<output>0.60955734812270135</output>
							</split>
						</split>
						<split pos="right">
							<output>-0.96870042232904319</output>
						</split>
					</split>
				</split>
				<split pos="right">
					<feature>135</feature>
					<threshold>1576</threshold>
					<split pos="left">
						<feature>129</feature>
						<threshold>9</threshold>
						<split pos="left">
							<feature>119</feature>
							<threshold>-21.9843864</threshold>
							<split pos="left">
								<output>0.14210236293230644</output>
							</split>
							<split pos="right">
								<feature>134</feature>
								<threshold>0</threshold>
								<split pos="left">
									<output>0.0040112443833874144</output>
								</split>
								<split pos="right">
									<output>-0.1320884053562878</output>
								</split>
							</split>
						</split>
						<split pos="right">
							<output>0.264628330853587</output>
						</split>
					</split>
					<split pos="right">
						<output>0.39562129748688107</output>
					</split>
				</split>
			</split>
		</tree>
		<tree id="45" weight="0.100000001">
			<split>
				<feature>72</feature>
				<threshold>27.4225521</threshold>
				<split pos="left">
					<feature>127</feature>
					<threshold>27</threshold>
					<split pos="left">
						<feature>108</feature>
						<threshold>25.6242523</threshold>
						<split pos="left">
							<feature>109</feature>
							<threshold>18.1860657</threshold>
							<split pos="left">
								<feature>134</feature>
								<threshold>5365</threshold>
								<split pos="left">
									<feature>128</feature>
									<threshold>24</threshold>
									<split pos="left">
										<feature>92</feature>
										<threshold>163.333725</threshold>
										<split pos="left">
											<feature>110</feature>
											<threshold>20.9962559</threshold>
											<split pos="left">
												<output>-0.11752610173899021</output>
											</split>
											<split pos="right">
												<output>0.1118594942111803</output>
											</split>
										</split>
										<split pos="right">
											<output>1.4615262262879689</output>
										</split>
									</split>
									<split pos="right">
										<output>0.26790987865230226</output>
									</split>
								</split>
								<split pos="right">
									<output>0.24420723669051675</output>
								</split>
							</split>
							<split pos="right">
								<output>0.34808808228206889</output>
							</split>
						</split>
						<split pos="right">
							<output>0.34761948139488597</output>
						</split>
					</split>
					<split pos="right">
						<feature>30</feature>
						<threshold>1</threshold>
						<split pos="left">
							<output>-0.17250499160928984</output>
						</split>
						<split pos="right">
							<output>-0.0021509135158170852</output>
						</split>
					</split>
				</split>
				<split pos="right">
					<output>0.19585700647647289</output>
				</split>
			</split>
		</tree>
		<tree id="46" weight="0.100000001">
			<split>
				<feature>133</feature>
				<threshold>7</threshold>
				<split pos="left">
					<feature>72</feature>
					<threshold>28.3687248</threshold>
					<split pos="left">
						<feature>134</feature>
						<threshold>524</threshold>
						<split pos="left">
							<feature>127</feature>
							<threshold>33</threshold>
							<split pos="left">
								<feature>108</feature>
								<threshold>26.2585754</threshold>
								<split pos="left">
									<feature>109</feature>
									<threshold>15.158617</threshold>
									<split pos="left">
										<output>0.087870928379142343</output>
									</split>
									<split pos="right">
										<output>0.45388071919113443</output>
									</split>
								</split>
								<split pos="right">
									<output>0.5609944261549652</output>
								</split>
							</split>
							<split pos="right">
								<output>-0.049937973368689118</output>
							</split>
						</split>
						<split pos="right">
							<output>0.18806084054754008</output>
						</split>
					</split>
					<split pos="right">
						<output>0.39092786030860194</output>
					</split>
				</split>
				<split pos="right">
					<feature>134</feature>
					<threshold>0</threshold>
					<split pos="left">
						<feature>11</feature>
						<threshold>1017</threshold>
						<split pos="left">
							<feature>101</feature>
							<threshold>0.0867860019</threshold>
							<split pos="left">
								<output>0.22955130775142027</output>
							</split>
							<split pos="right">
								<output>-0.067113377739726351</output>
							</split>
						</split>
						<split pos="right">
							<output>-0.29486831720839746</output>
						</split>
					</split>
					<split pos="right">
						<output>-0.083204417458922139</output>
					</split>
				</split>
			</split>
		</tree>
		<tree id="47" weight="0.100000001">
			<split>
				<feature>22</feature>
				<threshold>169</threshold>
				<split pos="left">
					<feature>129</feature>
					<threshold>2</threshold>
					<split pos="left">
						<feature>130</feature>
						<threshold>63665</threshold>
						<split pos="left">
							<feature>134</feature>
							<threshold>6450</threshold>
							<split pos="left">
								<feature>134</feature>
								<threshold>6015</threshold>
								<split pos="left">
									<feature>50</feature>
									<threshold>0.0461779982</threshold>
									<split pos="left">
										<output>-0.16332875002386532</output>
									</split>
									<split pos="right">
										<output>0.0019137580450233475</output>
									</split>
								</split>
								<split pos="right">
									<output>0.85099476993855949</output>
								</split>
							</split>
							<split pos="right">
								<output>-0.63002048991005222</output>
							</split>
						</split>
						<split pos="right">
							<output>0.17461350513715476</output>
						</split>
					</split>
					<split pos="right">
						<feature>54</feature>
						<threshold>0.230768993</threshold>
						<split pos="left">
							<feature>133</feature>
							<threshold>1</threshold>
							<split pos="left">
								<output>0.42222578120535631</output>
							</split>
							<split pos="right">
								<feature>3</feature>
								<threshold>3</threshold>
								<split pos="left">
									<output>-0.00086792897745371249</output>
								</split>
								<split pos="right">
									<output>0.34874656435945289</output>
								</split>
							</split>
						</split>
						<split pos="right">
							<output>0.53452463176270359</output>
						</split>
					</split>
				</split>
				<split pos="right">
					<output>-3.0557702422437565</output>
				</split>
			</split>
		</tree>
		<tree id="48" weight="0.100000001">
			<split>
				<feature>107</feature>
				<threshold>17.7106876</threshold>
				<split pos="left">
					<feature>127</feature>
					<threshold>30</threshold>
					<split pos="left">
						<feature>108</feature>
						<threshold>24.0641136</threshold>
						<split pos="left">
							<feature>77</feature>
							<threshold>25.2135983</threshold>
							<split pos="left">
								<feature>109</feature>
								<threshold>18.2321739</threshold>
								<split pos="left">
									<feature>134</feature>
									<threshold>5365</threshold>
									<split pos="left">
										<feature>134</feature>
										<threshold>0</threshold>
										<split pos="left">
											<feature>128</feature>
											<threshold>21</threshold>
											<split pos="left">
												<output>-0.011287063709423381</output>
											</split>
											<split pos="right">
												<output>0.23816104987468409</output>
											</split>
										</split>
										<split pos="right">
											<output>-0.094847441545760247</output>
										</split>
									</split>
									<split pos="right">
										<output>0.20211377665892588</output>
									</split>
								</split>
								<split pos="right">
									<output>0.30203543984315723</output>
								</split>
							</split>
							<split pos="right">
								<output>0.73047994650701353</output>
							</split>
						</split>
						<split pos="right">
							<output>0.26703432288048923</output>
						</split>
					</split>
					<split pos="right">
						<feature>74</feature>
						<threshold>4.38910294</threshold>
						<split pos="left">
							<output>-0.15413015916405526</output>
						</split>
						<split pos="right">
							<output>0.0056476408527450488</output>
						</split>
					</split>
				</split>
				<split pos="right">
					<output>0.16412365170267804</output>
				</split>
			</split>
		</tree>
		<tree id="49" weight="0.100000001">
			<split>
				<feature>133</feature>
				<threshold>70</threshold>
				<split pos="left">
					<feature>107</feature>
					<threshold>17.6947212</threshold>
					<split pos="left">
						<feature>14</feature>
						<threshold>4</threshold>
						<split pos="left">
							<feature>108</feature>
							<threshold>35.1742973</threshold>
							<split pos="left">
								<feature>110</feature>
								<threshold>19.5435829</threshold>
								<split pos="left">
									<output>-0.012573323578138826</output>
								</split>
								<split pos="right">
									<output>0.25680298671309126</output>
								</split>
							</split>
							<split pos="right">
								<output>0.78368368523750009</output>
							</split>
						</split>
						<split pos="right">
							<feature>26</feature>
							<threshold>34</threshold>
							<split pos="left">
								<feature>49</feature>
								<threshold>0.277778</threshold>
								<split pos="left">
									<feature>115</feature>
									<threshold>-24.2074566</threshold>
									<split pos="left">
										<output>-0.30916315436583064</output>
									</split>
									<split pos="right">
										<feature>115</feature>
										<threshold>-24.2074013</threshold>
										<split pos="left">
											<output>1.4837132097779502</output>
										</split>
										<split pos="right">
											<output>-0.038322025419280682</output>
										</split>
									</split>
								</split>
								<split pos="right">
									<output>0.14553381322161943</output>
								</split>
							</split>
							<split pos="right">
								<output>0.37650883949590852</output>
							</split>
						</split>
					</split>
					<split pos="right">
						<output>0.22783009343822022</output>
					</split>
				</split>
				<split pos="right">
					<output>-0.20595289085690771</output>
				</split>
			</split>
		</tree>
		<tree id="50" weight="0.100000001">
			<split>
				<feature>129</feature>
				<threshold>23</threshold>
				<split pos="left">
					<feature>136</feature>
					<threshold>44.9683342</threshold>
					<split pos="left">
						<feature>134</feature>
						<threshold>0</threshold>
						<split pos="left">
							<feature>130</feature>
							<threshold>28211</threshold>
							<split pos="left">
								<feature>26</feature>
								<threshold>4</threshold>
								<split pos="left">
									<feature>2</feature>
									<threshold>4</threshold>
									<split pos="left">
										<feature>109</feature>
										<threshold>45.1276207</threshold>
										<split pos="left">
											<feature>15</feature>
											<threshold>2155</threshold>
											<split pos="left">
												<output>-0.10559486292754645</output>
											</split>
											<split pos="right">
												<output>-0.54208887238337089</output>
											</split>
										</split>
										<split pos="right">
											<output>1.2167028651411211</output>
										</split>
									</split>
									<split pos="right">
										<output>0.70379646469876866</output>
									</split>
								</split>
								<split pos="right">
									<output>0.019038463935810386</output>
								</split>
							</split>
							<split pos="right">
								<output>0.1221189757033091</output>
							</split>
						</split>
						<split pos="right">
							<feature>119</feature>
							<threshold>-15.5325909</threshold>
							<split pos="left">
								<output>0.044851247599655968</output>
							</split>
							<split pos="right">
								<output>-0.24839974513550961</output>
							</split>
						</split>
					</split>
					<split pos="right">
						<output>0.13362202239478599</output>
					</split>
				</split>
				<split pos="right">
					<output>0.26950040433516209</output>
				</split>
			</split>
		</tree>
		<tree id="51" weight="0.100000001">
			<split>
				<feature>3</feature>
				<threshold>3</threshold>
				<split pos="left">
					<feature>64</feature>
					<threshold>0.131578997</threshold>
					<split pos="left">
						<feature>3</feature>
						<threshold>1</threshold>
						<split pos="left">
							<feature>134</feature>
							<threshold>16</threshold>
							<split pos="left">
								<feature>2</feature>
								<threshold>1</threshold>
								<split pos="left">
									<output>-0.11918683806626203</output>
								</split>
								<split pos="right">
									<output>0.59154444074779189</output>
								</split>
							</split>
							<split pos="right">
								<output>-0.17766981218592978</output>
							</split>
						</split>
						<split pos="right">
							<feature>135</feature>
							<threshold>611</threshold>
							<split pos="left">
								<feature>134</feature>
								<threshold>2123</threshold>
								<split pos="left">
									<feature>134</feature>
									<threshold>226</threshold>
									<split pos="left">
										<feature>130</feature>
										<threshold>27529</threshold>
										<split pos="left">
											<output>-0.014885846382951181</output>
										</split>
										<split pos="right">
											<output>0.16432089968751923</output>
										</split>
									</split>
									<split pos="right">
										<output>0.20905145090773264</output>
									</split>
								</split>
								<split pos="right">
									<output>-0.49502539221794362</output>
								</split>
							</split>
							<split pos="right">
								<output>0.323260687770487</output>
							</split>
						</split>
					</split>
					<split pos="right">
						<output>0.140931990660985</output>
					</split>
				</split>
				<split pos="right">
					<output>0.23034709949071777</output>
				</split>
			</split>
		</tree>
		<tree id="52" weight="0.100000001">
			<split>
				<feature>87</feature>
				<threshold>19.7712574</threshold>
				<split pos="left">
					<feature>3</feature>
					<threshold>3</threshold>
					<split pos="left">
						<feature>129</feature>
						<threshold>0</threshold>
						<split pos="left">
							<feature>134</feature>
							<threshold>74717</threshold>
							<split pos="left">
								<feature>11</feature>
								<threshold>0</threshold>
								<split pos="left">
									<output>0.45480412451850077</output>
								</split>
								<split pos="right">
									<feature>2</feature>
									<threshold>5</threshold>
									<split pos="left">
										<feature>128</feature>
										<threshold>75</threshold>
										<split pos="left">
											<output>-0.13424218536218044</output>
										</split>
										<split pos="right">
											<output>0.054892468895619509</output>
										</split>
									</split>
									<split pos="right">
										<output>1.390355232089211</output>
									</split>
								</split>
							</split>
							<split pos="right">
								<output>-1.0447633761807178</output>
							</split>
						</split>
						<split pos="right">
							<feature>54</feature>
							<threshold>0.230768993</threshold>
							<split pos="left">
								<feature>127</feature>
								<threshold>27</threshold>
								<split pos="left">
									<output>0.12639909609160083</output>
								</split>
								<split pos="right">
									<output>-0.016654878247149698</output>
								</split>
							</split>
							<split pos="right">
								<output>0.39831045832490897</output>
							</split>
						</split>
					</split>
					<split pos="right">
						<output>0.21376282408767702</output>
					</split>
				</split>
				<split pos="right">
					<output>0.25778431216177605</output>
				</split>
			</split>
		</tree>
		<tree id="53" weight="0.100000001">
			<split>
				<feature>87</feature>
				<threshold>19.7712574</threshold>
				<split pos="left">
					<feature>3</feature>
					<threshold>2</threshold>
					<split pos="left">
						<feature>133</feature>
						<threshold>55</threshold>
						<split pos="left">
							<feature>64</feature>
							<threshold>0.125</threshold>
							<split pos="left">
								<feature>87</feature>
								<threshold>19.7226677</threshold>
								<split pos="left">
									<feature>3</feature>
									<threshold>1</threshold>
									<split pos="left">
										<feature>134</feature>
										<threshold>22</threshold>
										<split pos="left">
											<feature>15</feature>
											<threshold>29</threshold>
											<split pos="left">
												<output>0.32814675358450285</output>
											</split>
											<split pos="right">
												<output>-0.11508328081634653</output>
											</split>
										</split>
										<split pos="right">
											<output>-0.15830603530214246</output>
										</split>
									</split>
									<split pos="right">
										<feature>135</feature>
										<threshold>611</threshold>
										<split pos="left">
											<output>0.041268680722062939</output>
										</split>
										<split pos="right">
											<output>0.37386476725776707</output>
										</split>
									</split>
								</split>
								<split pos="right">
									<output>-3.0127298221214445</output>
								</split>
							</split>
							<split pos="right">
								<output>0.14349964839846413</output>
							</split>
						</split>
						<split pos="right">
							<output>-0.20549959234454127</output>
						</split>
					</split>
					<split pos="right">
						<output>0.10193622860775037</output>
					</split>
				</split>
				<split pos="right">
					<output>0.23652535661756821</output>
				</split>
			</split>
		</tree>
		<tree id="54" weight="0.100000001">
			<split>
				<feature>129</feature>
				<threshold>9</threshold>
				<split pos="left">
					<feature>135</feature>
					<threshold>12</threshold>
					<split pos="left">
						<feature>134</feature>
						<threshold>234</threshold>
						<split pos="left">
							<feature>3</feature>
							<threshold>11</threshold>
							<split pos="left">
								<feature>15</feature>
								<threshold>1271</threshold>
								<split pos="left">
									<feature>130</feature>
									<threshold>65197</threshold>
									<split pos="left">
